Classification

Once I figured out how to not run out of heap memory, I ran a few tests.  First I started with some preprocessing.  I turned all numeric attributes into nominal and ran ZeroR with 5 folds.  This resulted in about 44% of the 100,000 records being correctly classified.  I did some more preprocessing and elminated all attributes but:
	Patient-Sex
	Age
	Patient-Race
	Patient-Disposition
	Principal-Dx-Code
	Admit-Dx-Code

I discretized age and made all other numerics into nominal.  I also merged 2 and 20 in the disposition into one value and the other dispositions into another.  Finally, I collapsed the data set down to 25000 random records and ran J48 with an 80% confidence and an unpruned tree.  This resulted in about 95.5% of the records being classified correctly.  However, this only really classified about a third of the code 2/20's correctly.  I also ran a ZeroR on this preprocessed data set.  The results are below:


ZeroR
=== Run information ===

Scheme:       weka.classifiers.rules.ZeroR 
Relation:     train-a-weka.filters.unsupervised.attribute.Remove-R1-2-weka.filters.unsupervised.attribute.Discretize-B10-M-1.0-R2,4,8,48,49,50,76,77-weka.filters.unsupervised.attribute.NumericToNominal-Rfirst-last-weka.filters.unsupervised.attribute.Remove-R1-2,6,8-12,15-77-weka.filters.unsupervised.attribute.MergeTwoValues-C4-F2-S9-weka.filters.unsupervised.attribute.MergeTwoValues-C4-F1-S3-weka.filters.unsupervised.attribute.MergeTwoValues-C4-F1-S3-weka.filters.unsupervised.attribute.MergeTwoValues-C4-F1-S3-weka.filters.unsupervised.attribute.MergeTwoValues-C4-F1-S3-weka.filters.unsupervised.attribute.MergeTwoValues-C4-F1-S3-weka.filters.unsupervised.attribute.MergeTwoValues-C4-F1-S3-weka.filters.unsupervised.attribute.MergeTwoValues-C4-F1-S3-weka.filters.unsupervised.attribute.MergeTwoValues-C4-F1-S3-weka.filters.unsupervised.attribute.MergeTwoValues-C4-F1-S3-weka.filters.unsupervised.attribute.MergeTwoValues-C4-F1-S3-weka.filters.unsupervised.attribute.MergeTwoValues-C4-F1-S3-weka.filters.unsupervised.attribute.MergeTwoValues-C4-F1-S3-weka.filters.unsupervised.attribute.MergeTwoValues-C4-F1-S3-weka.filters.unsupervised.attribute.MergeTwoValues-C4-F1-S3-weka.filters.unsupervised.instance.Resample-S1-Z25.0
Instances:    24999
Attributes:   6
              Patient-Sex
              Age
              Patient-Race
              Patient-Disposition
              Principal-Dx-Code
              Admit-Dx-Code
Test mode:    5-fold cross-validation

=== Classifier model (full training set) ===

ZeroR predicts class value: 1_3_4_5_6_7_8_43_50_51_61_62_63_65_66

Time taken to build model: 0.04 seconds

=== Stratified cross-validation ===
=== Summary ===

Correctly Classified Instances       23389               93.5597 %
Incorrectly Classified Instances      1610                6.4403 %
Kappa statistic                          0     
Mean absolute error                      0.1205
Root mean squared error                  0.2455
Relative absolute error                100      %
Root relative squared error            100      %
Total Number of Instances            24999     

=== Detailed Accuracy By Class ===

               TP Rate   FP Rate   Precision   Recall  F-Measure   ROC Area  Class
                 1         1          0.936     1         0.967      0.5      1_3_4_5_6_7_8_43_50_51_61_62_63_65_66
                 0         0          0         0         0          0.5      2_20
Weighted Avg.    0.936     0.936      0.875     0.936     0.904      0.5  

=== Confusion Matrix ===

     a     b   <-- classified as
 23389     0 |     a = 1_3_4_5_6_7_8_43_50_51_61_62_63_65_66
  1610     0 |     b = 2_20


J48
=== Run information ===

Scheme:       weka.classifiers.trees.J48 -U -M 2
Relation:     train-a-weka.filters.unsupervised.attribute.Remove-R1-2-weka.filters.unsupervised.attribute.Discretize-B10-M-1.0-R2,4,8,48,49,50,76,77-weka.filters.unsupervised.attribute.NumericToNominal-Rfirst-last-weka.filters.unsupervised.attribute.Remove-R1-2,6,8-12,15-77-weka.filters.unsupervised.attribute.MergeTwoValues-C4-F2-S9-weka.filters.unsupervised.attribute.MergeTwoValues-C4-F1-S3-weka.filters.unsupervised.attribute.MergeTwoValues-C4-F1-S3-weka.filters.unsupervised.attribute.MergeTwoValues-C4-F1-S3-weka.filters.unsupervised.attribute.MergeTwoValues-C4-F1-S3-weka.filters.unsupervised.attribute.MergeTwoValues-C4-F1-S3-weka.filters.unsupervised.attribute.MergeTwoValues-C4-F1-S3-weka.filters.unsupervised.attribute.MergeTwoValues-C4-F1-S3-weka.filters.unsupervised.attribute.MergeTwoValues-C4-F1-S3-weka.filters.unsupervised.attribute.MergeTwoValues-C4-F1-S3-weka.filters.unsupervised.attribute.MergeTwoValues-C4-F1-S3-weka.filters.unsupervised.attribute.MergeTwoValues-C4-F1-S3-weka.filters.unsupervised.attribute.MergeTwoValues-C4-F1-S3-weka.filters.unsupervised.attribute.MergeTwoValues-C4-F1-S3-weka.filters.unsupervised.attribute.MergeTwoValues-C4-F1-S3-weka.filters.unsupervised.instance.Resample-S1-Z25.0
Instances:    24999
Attributes:   6
              Patient-Sex
              Age
              Patient-Race
              Patient-Disposition
              Principal-Dx-Code
              Admit-Dx-Code
Test mode:    evaluate on training data

=== Classifier model (full training set) ===

J48 unpruned tree
------------------
BUNCH OF LEAVES

Number of Leaves  : 	270040

Size of the tree : 	270319


Time taken to build model: 12.94 seconds

=== Evaluation on training set ===
=== Summary ===

Correctly Classified Instances       23875               95.5038 %
Incorrectly Classified Instances      1124                4.4962 %
Kappa statistic                          0.4806
Mean absolute error                      0.0735
Root mean squared error                  0.1917
Relative absolute error                 60.9989 %
Root relative squared error             78.1038 %
Total Number of Instances            24999     

=== Detailed Accuracy By Class ===

               TP Rate   FP Rate   Precision   Recall  F-Measure   ROC Area  Class
                 0.997     0.652      0.957     0.997     0.976      0.917    1_3_4_5_6_7_8_43_50_51_61_62_63_65_66
                 0.348     0.003      0.882     0.348     0.5        0.917    2_20
Weighted Avg.    0.955     0.61       0.952     0.955     0.946      0.917

=== Confusion Matrix ===

     a     b   <-- classified as
 23314    75 |     a = 1_3_4_5_6_7_8_43_50_51_61_62_63_65_66
  1049   561 |     b = 2_20


ZeroR
=== Run information ===

Scheme:       weka.classifiers.rules.ZeroR 
Relation:     train-a-weka.filters.unsupervised.attribute.Remove-R1-2-weka.filters.unsupervised.attribute.NumericToNominal-Rfirst-last
Instances:    99999
Attributes:   77
              Record Count
              Interval
              Patient-Sex
              Age
              Patient-Race
              Patient-Ethnicity
              Patient-Disposition
              Length of Stay
              Admit-Type
              Admit-Source
              Hospital-ID
              Region-ID
              Principal-Dx-Code
              Admit-Dx-Code
              Other-Dx-Code-1
              Other-Dx-Code-2
              Other-Dx-Code-3
              Other-Dx-Code-4
              Other-Dx-Code-5
              Other-Dx-Code-6
              Other-Dx-Code-7
              Other-Dx-Code-8
              Other-Dx-Code-9
              Other-Dx-Code-10
              Other-Dx-Code-11
              Other-Dx-Code-12
              Other-Dx-Code-13
              Other-Dx-Code-14
              Principal-PR-Code
              Other-PR-Code-1
              Other-PR-Code-2
              Other-PR-Code-3
              Other-PR-Code-4
              Other-PR-Code-5
              Other-PR-Code-6
              Other-PR-Code-7
              Other-PR-Code-8
              Other-PR-Code-9
              Other-PR-Code-10
              Other-PR-Code-11
              Other-PR-Code-12
              Other-PR-Code-13
              Other-PR-Code-14
              Cause-E-Code
              Place-E-Code
              Reimb DRG
              Reimb MDC
              AccomCharges
              AncilCharges
              TotalCharges
              Serv-Class
              Residence-Ind
              Emergency-Dept-Ind
              CMC1
              CMC2
              CMC3
              CMC4
              CMC5
              CMC6
              CMC7
              CMC8
              CMC9
              CMC10
              PL1
              PL2
              PL3
              PL4
              PL5
              Pot Amb
              Complication-Minor
              Complication-Sever
              Trauma-Minor
              Trauma-Severe
              Trauma-Severity
              Nosocomial Inf
              Severity
              Cost Weight
Test mode:    5-fold cross-validation

=== Classifier model (full training set) ===

ZeroR predicts class value: 1

Time taken to build model: 0.06 seconds

=== Stratified cross-validation ===
=== Summary ===

Correctly Classified Instances       44001               44.0014 %
Incorrectly Classified Instances     55998               55.9986 %
Kappa statistic                          0     
Mean absolute error                      0.0838
Root mean squared error                  0.2046
Relative absolute error                100      %
Root relative squared error            100      %
Total Number of Instances            99999     

=== Detailed Accuracy By Class ===

               TP Rate   FP Rate   Precision   Recall  F-Measure   ROC Area  Class
                 1         1          0.44      1         0.611      0.5      1
                 0         0          0         0         0          0.5      2
                 0         0          0         0         0          0.5      3
                 0         0          0         0         0          0.5      4
                 0         0          0         0         0          0.5      5
                 0         0          0         0         0          0.5      6
                 0         0          0         0         0          0.5      7
                 0         0          0         0         0          0.5      8
                 0         0          0         0         0          0.5      20
                 0         0          0         0         0          0.485    43
                 0         0          0         0         0          0.497    50
                 0         0          0         0         0          0.498    51
                 0         0          0         0         0          0.498    61
                 0         0          0         0         0          0.5      62
                 0         0          0         0         0          0.493    63
                 0         0          0         0         0          0.5      65
                 0         0          0         0         0          0.5      66
Weighted Avg.    0.44      0.44       0.194     0.44      0.269      0.5  

=== Confusion Matrix ===

     a     b     c     d     e     f     g     h     i     j     k     l     m     n     o     p     q   <-- classified as
 44001     0     0     0     0     0     0     0     0     0     0     0     0     0     0     0     0 |     a = 1
  4203     0     0     0     0     0     0     0     0     0     0     0     0     0     0     0     0 |     b = 2
 20963     0     0     0     0     0     0     0     0     0     0     0     0     0     0     0     0 |     c = 3
   575     0     0     0     0     0     0     0     0     0     0     0     0     0     0     0     0 |     d = 4
  1328     0     0     0     0     0     0     0     0     0     0     0     0     0     0     0     0 |     e = 5
 21721     0     0     0     0     0     0     0     0     0     0     0     0     0     0     0     0 |     f = 6
  1501     0     0     0     0     0     0     0     0     0     0     0     0     0     0     0     0 |     g = 7
   220     0     0     0     0     0     0     0     0     0     0     0     0     0     0     0     0 |     h = 8
  2203     0     0     0     0     0     0     0     0     0     0     0     0     0     0     0     0 |     i = 20
    26     0     0     0     0     0     0     0     0     0     0     0     0     0     0     0     0 |     j = 43
   218     0     0     0     0     0     0     0     0     0     0     0     0     0     0     0     0 |     k = 50
   234     0     0     0     0     0     0     0     0     0     0     0     0     0     0     0     0 |     l = 51
   211     0     0     0     0     0     0     0     0     0     0     0     0     0     0     0     0 |     m = 61
  2408     0     0     0     0     0     0     0     0     0     0     0     0     0     0     0     0 |     n = 62
    92     0     0     0     0     0     0     0     0     0     0     0     0     0     0     0     0 |     o = 63
    90     0     0     0     0     0     0     0     0     0     0     0     0     0     0     0     0 |     p = 65
     5     0     0     0     0     0     0     0     0     0     0     0     0     0     0     0     0 |     q = 66


